digraph Tree {
node [shape=box] ;
0 [label="X[0] <= 1.192\ngini = 0.49\nsamples = 350\nvalue = [200, 150]"] ;
1 [label="X[6] <= 0.763\ngini = 0.151\nsamples = 194\nvalue = [178, 16]"] ;
0 -> 1 [labeldistance=2.5, labelangle=45, headlabel="True"] ;
2 [label="X[2] <= 2.5\ngini = 0.055\nsamples = 176\nvalue = [171, 5]"] ;
1 -> 2 ;
3 [label="X[4] <= 62.919\ngini = 0.045\nsamples = 175\nvalue = [171, 4]"] ;
2 -> 3 ;
4 [label="X[3] <= 1.34\ngini = 0.375\nsamples = 12\nvalue = [9, 3]"] ;
3 -> 4 ;
5 [label="X[2] <= 0.5\ngini = 0.18\nsamples = 10\nvalue = [9, 1]"] ;
4 -> 5 ;
6 [label="gini = 0.0\nsamples = 7\nvalue = [7, 0]"] ;
5 -> 6 ;
7 [label="X[0] <= 0.295\ngini = 0.444\nsamples = 3\nvalue = [2, 1]"] ;
5 -> 7 ;
8 [label="gini = 0.0\nsamples = 1\nvalue = [0, 1]"] ;
7 -> 8 ;
9 [label="gini = 0.0\nsamples = 2\nvalue = [2, 0]"] ;
7 -> 9 ;
10 [label="gini = 0.0\nsamples = 2\nvalue = [0, 2]"] ;
4 -> 10 ;
11 [label="X[2] <= 2.188\ngini = 0.012\nsamples = 163\nvalue = [162, 1]"] ;
3 -> 11 ;
12 [label="gini = 0.0\nsamples = 160\nvalue = [160, 0]"] ;
11 -> 12 ;
13 [label="X[3] <= 2.422\ngini = 0.444\nsamples = 3\nvalue = [2, 1]"] ;
11 -> 13 ;
14 [label="gini = 0.0\nsamples = 1\nvalue = [0, 1]"] ;
13 -> 14 ;
15 [label="gini = 0.0\nsamples = 2\nvalue = [2, 0]"] ;
13 -> 15 ;
16 [label="gini = 0.0\nsamples = 1\nvalue = [0, 1]"] ;
2 -> 16 ;
17 [label="X[2] <= 0.313\ngini = 0.475\nsamples = 18\nvalue = [7, 11]"] ;
1 -> 17 ;
18 [label="gini = 0.0\nsamples = 7\nvalue = [7, 0]"] ;
17 -> 18 ;
19 [label="gini = 0.0\nsamples = 11\nvalue = [0, 11]"] ;
17 -> 19 ;
20 [label="X[0] <= 2.408\ngini = 0.242\nsamples = 156\nvalue = [22, 134]"] ;
0 -> 20 [labeldistance=2.5, labelangle=-45, headlabel="False"] ;
21 [label="X[6] <= 0.411\ngini = 0.5\nsamples = 14\nvalue = [7, 7]"] ;
20 -> 21 ;
22 [label="gini = 0.0\nsamples = 4\nvalue = [4, 0]"] ;
21 -> 22 ;
23 [label="X[2] <= 2.411\ngini = 0.42\nsamples = 10\nvalue = [3, 7]"] ;
21 -> 23 ;
24 [label="gini = 0.0\nsamples = 5\nvalue = [0, 5]"] ;
23 -> 24 ;
25 [label="X[1] <= 1.464\ngini = 0.48\nsamples = 5\nvalue = [3, 2]"] ;
23 -> 25 ;
26 [label="gini = 0.0\nsamples = 2\nvalue = [2, 0]"] ;
25 -> 26 ;
27 [label="X[3] <= 1.758\ngini = 0.444\nsamples = 3\nvalue = [1, 2]"] ;
25 -> 27 ;
28 [label="gini = 0.0\nsamples = 1\nvalue = [0, 1]"] ;
27 -> 28 ;
29 [label="X[4] <= 108.496\ngini = 0.5\nsamples = 2\nvalue = [1, 1]"] ;
27 -> 29 ;
30 [label="gini = 0.0\nsamples = 1\nvalue = [1, 0]"] ;
29 -> 30 ;
31 [label="gini = 0.0\nsamples = 1\nvalue = [0, 1]"] ;
29 -> 31 ;
32 [label="X[2] <= 1.613\ngini = 0.189\nsamples = 142\nvalue = [15, 127]"] ;
20 -> 32 ;
33 [label="X[2] <= 1.268\ngini = 0.437\nsamples = 31\nvalue = [10, 21]"] ;
32 -> 33 ;
34 [label="X[2] <= 0.69\ngini = 0.308\nsamples = 21\nvalue = [4, 17]"] ;
33 -> 34 ;
35 [label="X[4] <= 158.48\ngini = 0.444\nsamples = 3\nvalue = [2, 1]"] ;
34 -> 35 ;
36 [label="gini = 0.0\nsamples = 2\nvalue = [2, 0]"] ;
35 -> 36 ;
37 [label="gini = 0.0\nsamples = 1\nvalue = [0, 1]"] ;
35 -> 37 ;
38 [label="X[6] <= 2.52\ngini = 0.198\nsamples = 18\nvalue = [2, 16]"] ;
34 -> 38 ;
39 [label="X[0] <= 9.5\ngini = 0.111\nsamples = 17\nvalue = [1, 16]"] ;
38 -> 39 ;
40 [label="gini = 0.0\nsamples = 15\nvalue = [0, 15]"] ;
39 -> 40 ;
41 [label="X[5] <= 8.391\ngini = 0.5\nsamples = 2\nvalue = [1, 1]"] ;
39 -> 41 ;
42 [label="gini = 0.0\nsamples = 1\nvalue = [0, 1]"] ;
41 -> 42 ;
43 [label="gini = 0.0\nsamples = 1\nvalue = [1, 0]"] ;
41 -> 43 ;
44 [label="gini = 0.0\nsamples = 1\nvalue = [1, 0]"] ;
38 -> 44 ;
45 [label="X[5] <= 8.149\ngini = 0.48\nsamples = 10\nvalue = [6, 4]"] ;
33 -> 45 ;
46 [label="gini = 0.0\nsamples = 3\nvalue = [0, 3]"] ;
45 -> 46 ;
47 [label="X[1] <= 0.268\ngini = 0.245\nsamples = 7\nvalue = [6, 1]"] ;
45 -> 47 ;
48 [label="gini = 0.0\nsamples = 6\nvalue = [6, 0]"] ;
47 -> 48 ;
49 [label="gini = 0.0\nsamples = 1\nvalue = [0, 1]"] ;
47 -> 49 ;
50 [label="X[4] <= 65.904\ngini = 0.086\nsamples = 111\nvalue = [5, 106]"] ;
32 -> 50 ;
51 [label="X[5] <= 9.756\ngini = 0.5\nsamples = 2\nvalue = [1, 1]"] ;
50 -> 51 ;
52 [label="gini = 0.0\nsamples = 1\nvalue = [0, 1]"] ;
51 -> 52 ;
53 [label="gini = 0.0\nsamples = 1\nvalue = [1, 0]"] ;
51 -> 53 ;
54 [label="X[0] <= 170.875\ngini = 0.071\nsamples = 109\nvalue = [4, 105]"] ;
50 -> 54 ;
55 [label="X[2] <= 2.55\ngini = 0.055\nsamples = 106\nvalue = [3, 103]"] ;
54 -> 55 ;
56 [label="X[6] <= 2.52\ngini = 0.175\nsamples = 31\nvalue = [3, 28]"] ;
55 -> 56 ;
57 [label="X[2] <= 2.464\ngini = 0.124\nsamples = 30\nvalue = [2, 28]"] ;
56 -> 57 ;
58 [label="X[6] <= 1.874\ngini = 0.074\nsamples = 26\nvalue = [1, 25]"] ;
57 -> 58 ;
59 [label="gini = 0.0\nsamples = 21\nvalue = [0, 21]"] ;
58 -> 59 ;
60 [label="X[4] <= 133.788\ngini = 0.32\nsamples = 5\nvalue = [1, 4]"] ;
58 -> 60 ;
61 [label="gini = 0.0\nsamples = 1\nvalue = [1, 0]"] ;
60 -> 61 ;
62 [label="gini = 0.0\nsamples = 4\nvalue = [0, 4]"] ;
60 -> 62 ;
63 [label="X[0] <= 12.5\ngini = 0.375\nsamples = 4\nvalue = [1, 3]"] ;
57 -> 63 ;
64 [label="gini = 0.0\nsamples = 1\nvalue = [1, 0]"] ;
63 -> 64 ;
65 [label="gini = 0.0\nsamples = 3\nvalue = [0, 3]"] ;
63 -> 65 ;
66 [label="gini = 0.0\nsamples = 1\nvalue = [1, 0]"] ;
56 -> 66 ;
67 [label="gini = 0.0\nsamples = 75\nvalue = [0, 75]"] ;
55 -> 67 ;
68 [label="X[2] <= 61.917\ngini = 0.444\nsamples = 3\nvalue = [1, 2]"] ;
54 -> 68 ;
69 [label="gini = 0.0\nsamples = 1\nvalue = [1, 0]"] ;
68 -> 69 ;
70 [label="gini = 0.0\nsamples = 2\nvalue = [0, 2]"] ;
68 -> 70 ;
}