digraph Tree {
node [shape=box] ;
0 [label="X[0] <= 1.138\ngini = 0.329\nsamples = 1991\nvalue = [1578, 413]"] ;
1 [label="X[6] <= 0.523\ngini = 0.115\nsamples = 1572\nvalue = [1476, 96]"] ;
0 -> 1 [labeldistance=2.5, labelangle=45, headlabel="True"] ;
2 [label="X[6] <= 0.429\ngini = 0.037\nsamples = 1414\nvalue = [1387, 27]"] ;
1 -> 2 ;
3 [label="X[1] <= 0.578\ngini = 0.008\nsamples = 1247\nvalue = [1242, 5]"] ;
2 -> 3 ;
4 [label="X[3] <= 1.768\ngini = 0.375\nsamples = 20\nvalue = [15, 5]"] ;
3 -> 4 ;
5 [label="gini = 0.0\nsamples = 10\nvalue = [10, 0]"] ;
4 -> 5 ;
6 [label="X[6] <= 0.304\ngini = 0.5\nsamples = 10\nvalue = [5, 5]"] ;
4 -> 6 ;
7 [label="gini = 0.0\nsamples = 5\nvalue = [0, 5]"] ;
6 -> 7 ;
8 [label="gini = 0.0\nsamples = 5\nvalue = [5, 0]"] ;
6 -> 8 ;
9 [label="gini = 0.0\nsamples = 1227\nvalue = [1227, 0]"] ;
3 -> 9 ;
10 [label="X[6] <= 0.43\ngini = 0.229\nsamples = 167\nvalue = [145, 22]"] ;
2 -> 10 ;
11 [label="X[0] <= 0.009\ngini = 0.498\nsamples = 43\nvalue = [23, 20]"] ;
10 -> 11 ;
12 [label="gini = 0.0\nsamples = 18\nvalue = [18, 0]"] ;
11 -> 12 ;
13 [label="X[3] <= 2.311\ngini = 0.32\nsamples = 25\nvalue = [5, 20]"] ;
11 -> 13 ;
14 [label="X[5] <= 0.496\ngini = 0.095\nsamples = 20\nvalue = [1, 19]"] ;
13 -> 14 ;
15 [label="gini = 0.444\nsamples = 3\nvalue = [1, 2]"] ;
14 -> 15 ;
16 [label="gini = 0.0\nsamples = 17\nvalue = [0, 17]"] ;
14 -> 16 ;
17 [label="X[0] <= 0.875\ngini = 0.32\nsamples = 5\nvalue = [4, 1]"] ;
13 -> 17 ;
18 [label="gini = 0.0\nsamples = 4\nvalue = [4, 0]"] ;
17 -> 18 ;
19 [label="gini = 0.0\nsamples = 1\nvalue = [0, 1]"] ;
17 -> 19 ;
20 [label="X[2] <= 1.556\ngini = 0.032\nsamples = 124\nvalue = [122, 2]"] ;
10 -> 20 ;
21 [label="gini = 0.0\nsamples = 118\nvalue = [118, 0]"] ;
20 -> 21 ;
22 [label="X[6] <= 0.496\ngini = 0.444\nsamples = 6\nvalue = [4, 2]"] ;
20 -> 22 ;
23 [label="gini = 0.0\nsamples = 4\nvalue = [4, 0]"] ;
22 -> 23 ;
24 [label="gini = 0.0\nsamples = 2\nvalue = [0, 2]"] ;
22 -> 24 ;
25 [label="X[2] <= 0.944\ngini = 0.492\nsamples = 158\nvalue = [89, 69]"] ;
1 -> 25 ;
26 [label="X[1] <= 30.139\ngini = 0.165\nsamples = 88\nvalue = [80, 8]"] ;
25 -> 26 ;
27 [label="X[6] <= 1.545\ngini = 0.049\nsamples = 80\nvalue = [78, 2]"] ;
26 -> 27 ;
28 [label="gini = 0.0\nsamples = 70\nvalue = [70, 0]"] ;
27 -> 28 ;
29 [label="X[6] <= 1.937\ngini = 0.32\nsamples = 10\nvalue = [8, 2]"] ;
27 -> 29 ;
30 [label="X[4] <= 109.718\ngini = 0.444\nsamples = 3\nvalue = [1, 2]"] ;
29 -> 30 ;
31 [label="gini = 0.0\nsamples = 1\nvalue = [1, 0]"] ;
30 -> 31 ;
32 [label="gini = 0.0\nsamples = 2\nvalue = [0, 2]"] ;
30 -> 32 ;
33 [label="gini = 0.0\nsamples = 7\nvalue = [7, 0]"] ;
29 -> 33 ;
34 [label="X[0] <= 0.015\ngini = 0.375\nsamples = 8\nvalue = [2, 6]"] ;
26 -> 34 ;
35 [label="gini = 0.0\nsamples = 6\nvalue = [0, 6]"] ;
34 -> 35 ;
36 [label="gini = 0.0\nsamples = 2\nvalue = [2, 0]"] ;
34 -> 36 ;
37 [label="X[3] <= 2.554\ngini = 0.224\nsamples = 70\nvalue = [9, 61]"] ;
25 -> 37 ;
38 [label="X[1] <= 3.444\ngini = 0.185\nsamples = 68\nvalue = [7, 61]"] ;
37 -> 38 ;
39 [label="X[6] <= 0.591\ngini = 0.413\nsamples = 24\nvalue = [7, 17]"] ;
38 -> 39 ;
40 [label="gini = 0.0\nsamples = 10\nvalue = [0, 10]"] ;
39 -> 40 ;
41 [label="X[4] <= 134.581\ngini = 0.5\nsamples = 14\nvalue = [7, 7]"] ;
39 -> 41 ;
42 [label="gini = 0.0\nsamples = 6\nvalue = [6, 0]"] ;
41 -> 42 ;
43 [label="gini = 0.219\nsamples = 8\nvalue = [1, 7]"] ;
41 -> 43 ;
44 [label="gini = 0.0\nsamples = 44\nvalue = [0, 44]"] ;
38 -> 44 ;
45 [label="gini = 0.0\nsamples = 2\nvalue = [2, 0]"] ;
37 -> 45 ;
46 [label="X[6] <= 0.289\ngini = 0.368\nsamples = 419\nvalue = [102, 317]"] ;
0 -> 46 [labeldistance=2.5, labelangle=-45, headlabel="False"] ;
47 [label="gini = 0.0\nsamples = 18\nvalue = [18, 0]"] ;
46 -> 47 ;
48 [label="X[1] <= 0.722\ngini = 0.331\nsamples = 401\nvalue = [84, 317]"] ;
46 -> 48 ;
49 [label="X[2] <= 0.69\ngini = 0.223\nsamples = 289\nvalue = [37, 252]"] ;
48 -> 49 ;
50 [label="X[6] <= 1.204\ngini = 0.49\nsamples = 14\nvalue = [8, 6]"] ;
49 -> 50 ;
51 [label="gini = 0.0\nsamples = 7\nvalue = [7, 0]"] ;
50 -> 51 ;
52 [label="X[6] <= 2.4\ngini = 0.245\nsamples = 7\nvalue = [1, 6]"] ;
50 -> 52 ;
53 [label="gini = 0.0\nsamples = 6\nvalue = [0, 6]"] ;
52 -> 53 ;
54 [label="gini = 0.0\nsamples = 1\nvalue = [1, 0]"] ;
52 -> 54 ;
55 [label="X[5] <= 0.759\ngini = 0.189\nsamples = 275\nvalue = [29, 246]"] ;
49 -> 55 ;
56 [label="X[3] <= 1.581\ngini = 0.034\nsamples = 114\nvalue = [2, 112]"] ;
55 -> 56 ;
57 [label="X[3] <= 1.573\ngini = 0.172\nsamples = 21\nvalue = [2, 19]"] ;
56 -> 57 ;
58 [label="gini = 0.095\nsamples = 20\nvalue = [1, 19]"] ;
57 -> 58 ;
59 [label="gini = 0.0\nsamples = 1\nvalue = [1, 0]"] ;
57 -> 59 ;
60 [label="gini = 0.0\nsamples = 93\nvalue = [0, 93]"] ;
56 -> 60 ;
61 [label="X[0] <= 2.917\ngini = 0.279\nsamples = 161\nvalue = [27, 134]"] ;
55 -> 61 ;
62 [label="X[4] <= 161.462\ngini = 0.48\nsamples = 10\nvalue = [6, 4]"] ;
61 -> 62 ;
63 [label="gini = 0.444\nsamples = 6\nvalue = [2, 4]"] ;
62 -> 63 ;
64 [label="gini = 0.0\nsamples = 4\nvalue = [4, 0]"] ;
62 -> 64 ;
65 [label="X[6] <= 2.111\ngini = 0.239\nsamples = 151\nvalue = [21, 130]"] ;
61 -> 65 ;
66 [label="gini = 0.161\nsamples = 125\nvalue = [11, 114]"] ;
65 -> 66 ;
67 [label="gini = 0.473\nsamples = 26\nvalue = [10, 16]"] ;
65 -> 67 ;
68 [label="X[6] <= 0.414\ngini = 0.487\nsamples = 112\nvalue = [47, 65]"] ;
48 -> 68 ;
69 [label="X[0] <= 1.222\ngini = 0.091\nsamples = 21\nvalue = [20, 1]"] ;
68 -> 69 ;
70 [label="X[4] <= 108.066\ngini = 0.5\nsamples = 2\nvalue = [1, 1]"] ;
69 -> 70 ;
71 [label="gini = 0.0\nsamples = 1\nvalue = [1, 0]"] ;
70 -> 71 ;
72 [label="gini = 0.0\nsamples = 1\nvalue = [0, 1]"] ;
70 -> 72 ;
73 [label="gini = 0.0\nsamples = 19\nvalue = [19, 0]"] ;
69 -> 73 ;
74 [label="X[5] <= 1.413\ngini = 0.417\nsamples = 91\nvalue = [27, 64]"] ;
68 -> 74 ;
75 [label="X[6] <= 0.649\ngini = 0.363\nsamples = 84\nvalue = [20, 64]"] ;
74 -> 75 ;
76 [label="X[5] <= 1.219\ngini = 0.111\nsamples = 51\nvalue = [3, 48]"] ;
75 -> 76 ;
77 [label="gini = 0.0\nsamples = 41\nvalue = [0, 41]"] ;
76 -> 77 ;
78 [label="gini = 0.42\nsamples = 10\nvalue = [3, 7]"] ;
76 -> 78 ;
79 [label="X[2] <= 2.056\ngini = 0.5\nsamples = 33\nvalue = [17, 16]"] ;
75 -> 79 ;
80 [label="gini = 0.0\nsamples = 8\nvalue = [0, 8]"] ;
79 -> 80 ;
81 [label="gini = 0.435\nsamples = 25\nvalue = [17, 8]"] ;
79 -> 81 ;
82 [label="gini = 0.0\nsamples = 7\nvalue = [7, 0]"] ;
74 -> 82 ;
}